{"learner":{"attributes":{"best_iteration":"2","best_score":"0.6938930800775203","scikit_learn":"{\"_estimator_type\": \"classifier\"}"},"feature_names":[],"feature_types":[],"gradient_booster":{"model":{"cats":{"enc":[],"feature_segments":[],"sorted_idx":[]},"gbtree_model_param":{"num_parallel_tree":"1","num_trees":"43"},"iteration_indptr":[0,1,2,3,4,5,6,7,8,9,10,11,12,13,14,15,16,17,18,19,20,21,22,23,24,25,26,27,28,29,30,31,32,33,34,35,36,37,38,39,40,41,42,43],"tree_info":[0,0,0,0,0,0,0,0,0,0,0,0,0,0,0,0,0,0,0,0,0,0,0,0,0,0,0,0,0,0,0,0,0,0,0,0,0,0,0,0,0,0,0],"trees":[{"base_weights":[-5.0554825E-3,5.112592E-2,-5.8903366E-1,3.644174E-1,-2.1227894E-2,-9.511516E-2,-2.1952674E-2,1.4761549E-3,1.5799962E-2,-1.4505946E-2,8.78338E-4,-1.4199739E-2,1.1356623E-2],"categories":[],"categories_nodes":[],"categories_segments":[],"categories_sizes":[],"default_left":[0,0,0,0,0,0,0,0,0,0,0,0,0],"id":0,"left_children":[1,3,5,7,9,11,-1,-1,-1,-1,-1,-1,-1],"loss_changes":[8.554847E0,5.4016266E0,5.4174294E0,5.306134E0,8.972593E0,6.092426E0,0E0,0E0,0E0,0E0,0E0,0E0,0E0],"parents":[2147483647,0,0,1,1,2,2,3,3,4,4,5,5],"right_children":[2,4,6,8,10,12,-1,-1,-1,-1,-1,-1,-1],"split_conditions":[1.2377552E0,-6.107258E-1,6.943101E-1,-8.1043553E-1,-8.303171E-1,5.0090164E-1,-2.1952674E-2,1.4761549E-3,1.5799962E-2,-1.4505946E-2,8.78338E-4,-1.4199739E-2,1.1356623E-2],"split_indices":[0,8,21,8,7,3,0,0,0,0,0,0,0],"split_type":[0,0,0,0,0,0,0,0,0,0,0,0,0],"sum_hessian":[2.5541312E2,2.340119E2,2.1401209E1,4.315769E1,1.9085422E2,1.1910233E1,9.490975E0,2.6900894E1,1.6256792E1,1.5071133E1,1.7578308E2,6.2413297E0,5.6689034E0],"tree_param":{"num_deleted":"0","num_feature":"60","num_nodes":"13","size_leaf_vector":"1"}},{"base_weights":[-9.26262E-3,5.502982E-1,-6.179881E-2,2.2431138E-1,2.2711908E-2,-9.770941E-2,1.7992401E-2,-6.7968117E-3,1.3816365E-2,-8.796981E-3,1.0709295E-5],"categories":[],"categories_nodes":[],"categories_segments":[],"categories_sizes":[],"default_left":[0,0,0,0,0,0,0,0,0,0,0],"id":1,"left_children":[1,3,5,7,-1,9,-1,-1,-1,-1,-1],"loss_changes":[7.469715E0,3.5696106E0,8.110231E0,4.6217184E0,0E0,7.717695E0,0E0,0E0,0E0,0E0,0E0],"parents":[2147483647,0,0,1,1,2,2,3,3,5,5],"right_children":[2,4,6,8,-1,10,-1,-1,-1,-1,-1],"split_conditions":[-1.2534738E0,4.1926315E-1,1.4586701E0,-7.853647E-1,2.2711908E-2,-6.261443E-1,1.7992401E-2,-6.7968117E-3,1.3816365E-2,-8.796981E-3,1.0709295E-5],"split_indices":[17,31,17,52,0,7,0,0,0,0,0],"split_type":[0,0,0,0,0,0,0,0,0,0,0],"sum_hessian":[2.5335353E2,2.0280424E1,2.330731E2,1.4522902E1,5.7575216E0,2.2613034E2,6.9427714E0,6.6123075E0,7.910594E0,4.9624226E1,1.765061E2],"tree_param":{"num_deleted":"0","num_feature":"60","num_nodes":"11","size_leaf_vector":"1"}},{"base_weights":[1.5288029E-2,7.0925444E-2,-8.922394E-1,3.5931307E-1,-8.33922E-2,-2.1689512E-2,-8.564501E-3,2.3141305E-3,2.0914113E-2,-5.225588E-3,5.5983514E-3],"categories":[],"categories_nodes":[],"categories_segments":[],"categories_sizes":[],"default_left":[0,0,0,0,0,0,0,0,0,0,0],"id":2,"left_children":[1,3,5,7,9,-1,-1,-1,-1,-1,-1],"loss_changes":[1.2699276E1,1.0724968E1,3.7128258E-1,1.3681564E1,1.0227849E1,0E0,0E0,0E0,0E0,0E0,0E0],"parents":[2147483647,0,0,1,1,2,2,3,3,4,4],"right_children":[2,4,6,8,10,-1,-1,-1,-1,-1,-1],"split_conditions":[6.008352E-1,-1.5777576E-1,2.065151E0,-2.9694957E-1,5.708623E-1,-2.1689512E-2,-8.564501E-3,2.3141305E-3,2.0914113E-2,-5.225588E-3,5.5983514E-3],"split_indices":[36,58,29,13,19,0,0,0,0,0,0],"split_type":[0,0,0,0,0,0,0,0,0,0,0],"sum_hessian":[2.5056819E2,2.375527E2,1.3015491E1,8.245007E1,1.5510263E2,7.556081E0,5.4594097E0,6.2307873E1,2.0142199E1,1.04681564E2,5.0421066E1],"tree_param":{"num_deleted":"0","num_feature":"60","num_nodes":"11","size_leaf_vector":"1"}},{"base_weights":[2.9999027E-2,8.214052E-2,-5.9121096E-1,7.261017E-1,3.4852244E-2,-1.1546806E0,3.8348155E-3,5.2806777E-3,2.3323473E-2,7.350102E-3,-1.0078768E-3,-1.1694139E-2,-2.8365126E-2],"categories":[],"categories_nodes":[],"categories_segments":[],"categories_sizes":[],"default_left":[0,0,0,0,0,0,0,0,0,0,0,0,0],"id":3,"left_children":[1,3,5,7,9,11,-1,-1,-1,-1,-1,-1,-1],"loss_changes":[8.405194E0,7.1879735E0,9.32758E0,2.617116E0,6.4938135E0,2.5716782E-1,0E0,0E0,0E0,0E0,0E0,0E0,0E0],"parents":[2147483647,0,0,1,1,2,2,3,3,4,4,5,5],"right_children":[2,4,6,8,10,12,-1,-1,-1,-1,-1,-1,-1],"split_conditions":[1.2824836E0,-1.538519E0,5.2489084E-1,-1.7202137E-1,-4.5880905E-1,8.19174E-1,3.8348155E-3,5.2806777E-3,2.3323473E-2,7.350102E-3,-1.0078768E-3,-1.1694139E-2,-2.8365126E-2],"split_indices":[0,20,44,23,50,31,0,0,0,0,0,0,0],"split_type":[0,0,0,0,0,0,0,0,0,0,0,0,0],"sum_hessian":[2.581017E2,2.3953905E2,1.8562674E1,1.469682E1,2.2484222E2,1.0491578E1,8.071095E0,8.50624E0,6.19058E0,4.5210762E1,1.7963145E2,5.023997E0,5.4675817E0],"tree_param":{"num_deleted":"0","num_feature":"60","num_nodes":"13","size_leaf_vector":"1"}},{"base_weights":[9.161255E-2,-2.5146082E-1,1.9293363E-1,5.782894E-2,-7.356587E-1,6.4345634E-1,2.9961415E-2,7.082772E-3,-1.0093592E-2,-3.0968434E-3,-2.5586447E-2,7.511319E-3,2.1879086E-2,-1.5404889E-3,8.537215E-3],"categories":[],"categories_nodes":[],"categories_segments":[],"categories_sizes":[],"default_left":[0,0,0,0,0,0,0,0,0,0,0,0,0,0,0],"id":4,"left_children":[1,3,5,7,9,11,13,-1,-1,-1,-1,-1,-1,-1,-1],"loss_changes":[8.907097E0,8.898819E0,1.4377211E1,6.3770843E0,6.7596626E0,5.4593277E0,6.3401623E0,0E0,0E0,0E0,0E0,0E0,0E0,0E0,0E0],"parents":[2147483647,0,0,1,1,2,2,3,3,4,4,5,5,6,6],"right_children":[2,4,6,8,10,12,14,-1,-1,-1,-1,-1,-1,-1,-1],"split_conditions":[-6.261443E-1,-8.44688E-1,-8.018341E-2,-7.220959E-2,-8.2158595E-2,2.796701E-1,7.451663E-1,7.082772E-3,-1.0093592E-2,-3.0968434E-3,-2.5586447E-2,7.511319E-3,2.1879086E-2,-1.5404889E-3,8.537215E-3],"split_indices":[7,55,58,9,48,0,38,0,0,0,0,0,0,0,0],"split_type":[0,0,0,0,0,0,0,0,0,0,0,0,0,0,0],"sum_hessian":[2.5290044E2,5.68165E1,1.9608394E2,3.528723E1,2.1529268E1,5.0669548E1,1.4541438E2,2.3651018E1,1.1636214E1,1.1474137E1,1.0055132E1,3.3708263E1,1.6961283E1,1.1519427E2,3.0220121E1],"tree_param":{"num_deleted":"0","num_feature":"60","num_nodes":"15","size_leaf_vector":"1"}},{"base_weights":[2.9927917E-2,6.7600675E-2,-1.600743E-2,1.3463496E-1,-3.558246E-1,-1.2549525E-3,6.983543E-3,-2.0662393E-2,-1.2485182E-3],"categories":[],"categories_nodes":[],"categories_segments":[],"categories_sizes":[],"default_left":[0,0,0,0,0,0,0,0,0],"id":5,"left_children":[1,3,-1,5,7,-1,-1,-1,-1],"loss_changes":[8.1988945E0,7.2247915E0,0E0,9.390692E0,6.636201E0,0E0,0E0,0E0,0E0],"parents":[2147483647,0,0,1,1,3,3,4,4],"right_children":[2,4,-1,6,8,-1,-1,-1,-1],"split_conditions":[1.5405859E0,4.674094E-1,-1.600743E-2,4.3121725E-2,4.8959893E-1,-1.2549525E-3,6.983543E-3,-2.0662393E-2,-1.2485182E-3],"split_indices":[50,52,0,37,52,0,0,0,0],"split_type":[0,0,0,0,0,0,0,0,0],"sum_hessian":[2.6153516E2,2.5167458E2,9.860571E0,2.1846564E2,3.320894E1,1.13971756E2,1.0449389E2,8.740014E0,2.4468924E1],"tree_param":{"num_deleted":"0","num_feature":"60","num_nodes":"9","size_leaf_vector":"1"}},{"base_weights":[-2.2236492E-2,6.302372E-1,-6.565707E-2,2.4306642E-2,-0E0,8.3573766E-2,-3.5217232E-1,-4.3972628E-4,1.091259E-2,-2.7998323E-3,-1.3531983E-2],"categories":[],"categories_nodes":[],"categories_segments":[],"categories_sizes":[],"default_left":[0,0,0,0,0,0,0,0,0,0,0],"id":6,"left_children":[1,3,5,-1,-1,7,9,-1,-1,-1,-1],"loss_changes":[7.2775645E0,5.9619083E0,1.0481759E1,0E0,0E0,7.937603E0,5.5116816E0,0E0,0E0,0E0,0E0],"parents":[2147483647,0,0,1,1,2,2,5,5,6,6],"right_children":[2,4,6,-1,-1,8,10,-1,-1,-1,-1],"split_conditions":[-1.4853736E0,-9.425237E-1,2.1503271E-1,2.4306642E-2,-0E0,6.668305E-1,4.9595279E-1,-4.3972628E-4,1.091259E-2,-2.7998323E-3,-1.3531983E-2],"split_indices":[17,0,59,0,0,15,50,0,0,0,0],"split_type":[0,0,0,0,0,0,0,0,0,0,0],"sum_hessian":[2.5617667E2,1.4503803E1,2.4167287E2,6.840105E0,7.6636987E0,1.5926105E2,8.241183E1,1.3054178E2,2.8719255E1,5.1403E1,3.100883E1],"tree_param":{"num_deleted":"0","num_feature":"60","num_nodes":"11","size_leaf_vector":"1"}},{"base_weights":[5.0785642E-2,1.5545388E-1,-3.2876074E-1,2.0019376E-1,-1.5993977E-2,1.2689536E-2,-5.17514E-1,1.0461223E-2,1.617868E-3,-1.4650969E-2,7.4232405E-4],"categories":[],"categories_nodes":[],"categories_segments":[],"categories_sizes":[],"default_left":[0,0,0,0,0,0,0,0,0,0,0],"id":7,"left_children":[1,3,5,7,-1,-1,9,-1,-1,-1,-1],"loss_changes":[1.0242936E1,8.800787E0,1.0589363E1,7.3463173E0,0E0,0E0,5.8067894E0,0E0,0E0,0E0,0E0],"parents":[2147483647,0,0,1,1,2,2,3,3,6,6],"right_children":[2,4,6,8,-1,-1,10,-1,-1,-1,-1],"split_conditions":[6.2231725E-1,6.008352E-1,-1.2843254E0,-2.976848E-1,-1.5993977E-2,1.2689536E-2,4.6093467E-1,1.0461223E-2,1.617868E-3,-1.4650969E-2,7.4232405E-4],"split_indices":[26,36,4,1,0,0,43,0,0,0,0],"split_type":[0,0,0,0,0,0,0,0,0,0,0],"sum_hessian":[2.5506134E2,2.0093105E2,5.4130302E1,1.9322302E2,7.7080183E0,8.158648E0,4.5971657E1,5.0424156E1,1.4279887E2,3.2975906E1,1.2995748E1],"tree_param":{"num_deleted":"0","num_feature":"60","num_nodes":"11","size_leaf_vector":"1"}},{"base_weights":[-2.5173534E-2,2.2394558E-2,-5.858929E-2,-1.7180745E-2,-7.509411E-1,1.1318578E-2,-1.6609298E-3,-2.25842E-2,-1.1101451E-3],"categories":[],"categories_nodes":[],"categories_segments":[],"categories_sizes":[],"default_left":[0,0,0,0,0,0,0,0,0],"id":8,"left_children":[1,-1,3,5,7,-1,-1,-1,-1],"loss_changes":[9.797785E0,0E0,7.0881557E0,9.194793E0,3.4053006E0,0E0,0E0,0E0,0E0],"parents":[2147483647,0,0,2,2,3,3,4,4],"right_children":[2,-1,4,6,8,-1,-1,-1,-1],"split_conditions":[-9.62946E-1,2.2394558E-2,6.008352E-1,-7.5492656E-1,1.5149055E0,1.1318578E-2,-1.6609298E-3,-2.25842E-2,-1.1101451E-3],"split_indices":[23,0,36,9,33,0,0,0,0],"split_type":[0,0,0,0,0,0,0,0,0],"sum_hessian":[2.5618762E2,5.755017E0,2.504326E2,2.3795476E2,1.247785E1,2.2763533E1,2.1519122E2,7.33616E0,5.1416903E0],"tree_param":{"num_deleted":"0","num_feature":"60","num_nodes":"9","size_leaf_vector":"1"}},{"base_weights":[1.3865649E-2,6.489532E-2,-8.1603557E-1,9.687537E-2,-1.734469E-2,-2.9672405E-3,-2.5497105E-2,-7.3017147E-3,3.1230305E-3],"categories":[],"categories_nodes":[],"categories_segments":[],"categories_sizes":[],"default_left":[0,0,0,0,0,0,0,0,0],"id":9,"left_children":[1,3,5,7,-1,-1,-1,-1,-1],"loss_changes":[1.0776229E1,7.224917E0,4.0139112E0,6.5028E0,0E0,0E0,0E0,0E0,0E0],"parents":[2147483647,0,0,1,1,2,2,3,3],"right_children":[2,4,6,8,-1,-1,-1,-1,-1],"split_conditions":[1.5464839E0,5.199062E-1,6.236112E-1,-6.927943E-1,-1.734469E-2,-2.9672405E-3,-2.5497105E-2,-7.3017147E-3,3.1230305E-3],"split_indices":[1,53,27,27,0,0,0,0,0],"split_type":[0,0,0,0,0,0,0,0,0],"sum_hessian":[2.5374373E2,2.40518E2,1.3225724E1,2.33995E2,6.523008E0,6.328484E0,6.8972397E0,2.5442564E1,2.0855243E2],"tree_param":{"num_deleted":"0","num_feature":"60","num_nodes":"9","size_leaf_vector":"1"}},{"base_weights":[-5.1959574E-2,-1.2130215E-2,-7.378613E-1,-1.2308204E-1,2.3845246E-1,-2.1658411E-2,-2.5186404E-3,-1.5298998E-3,-2.020628E-2,1.4458547E-2,1.13333714E-4],"categories":[],"categories_nodes":[],"categories_segments":[],"categories_sizes":[],"default_left":[0,0,0,0,0,0,0,0,0,0,0],"id":10,"left_children":[1,3,5,7,9,-1,-1,-1,-1,-1,-1],"loss_changes":[6.94517E0,6.8761835E0,2.56464E0,6.836984E0,8.422119E0,0E0,0E0,0E0,0E0,0E0,0E0],"parents":[2147483647,0,0,1,1,2,2,3,3,4,4],"right_children":[2,4,6,8,10,-1,-1,-1,-1,-1,-1],"split_conditions":[6.008352E-1,1.759135E-1,-8.095071E-1,1.4527984E-1,-2.6980755E-1,-2.1658411E-2,-2.5186404E-3,-1.5298998E-3,-2.020628E-2,1.4458547E-2,1.13333714E-4],"split_indices":[36,36,54,36,0,0,0,0,0,0,0],"split_type":[0,0,0,0,0,0,0,0,0,0,0],"sum_hessian":[2.5733405E2,2.4486057E2,1.2473495E1,1.7065886E2,7.4201706E1,7.080973E0,5.3925214E0,1.6385358E2,6.8052816E0,2.2847881E1,5.135382E1],"tree_param":{"num_deleted":"0","num_feature":"60","num_nodes":"11","size_leaf_vector":"1"}},{"base_weights":[1.445674E-2,8.416681E-1,-3.485507E-2,4.4848667E-3,2.5811331E-2,8.444346E-3,-8.017549E-1,-5.401088E-4,1.7549837E-2,-2.666923E-2,2.903211E-4],"categories":[],"categories_nodes":[],"categories_segments":[],"categories_sizes":[],"default_left":[0,0,0,0,0,0,0,0,0,0,0],"id":11,"left_children":[1,3,5,-1,-1,7,9,-1,-1,-1,-1],"loss_changes":[1.0688774E1,3.4253855E0,8.256237E0,0E0,0E0,7.3401833E0,5.9909096E0,0E0,0E0,0E0,0E0],"parents":[2147483647,0,0,1,1,2,2,5,5,6,6],"right_children":[2,4,6,-1,-1,8,10,-1,-1,-1,-1],"split_conditions":[-1.538519E0,-3.461255E-1,1.567857E0,4.4848667E-3,2.5811331E-2,1.3148049E0,-5.5922354E-3,-5.401088E-4,1.7549837E-2,-2.666923E-2,2.903211E-4],"split_indices":[20,56,0,0,0,20,49,0,0,0,0],"split_type":[0,0,0,0,0,0,0,0,0,0,0],"sum_hessian":[2.5649005E2,1.3244891E1,2.4324515E2,6.663387E0,6.5815043E0,2.3146448E2,1.1780671E1,2.2362332E2,7.841155E0,6.669572E0,5.1110992E0],"tree_param":{"num_deleted":"0","num_feature":"60","num_nodes":"11","size_leaf_vector":"1"}},{"base_weights":[3.5053626E-2,-4.2955834E-1,1.05066314E-1,-7.33161E-1,8.287875E-3,1.5120958E-1,-5.212611E-1,-1.9203292E-2,-0E0,-8.130366E-3,4.372632E-3,3.301288E-3,-1.7861044E-2],"categories":[],"categories_nodes":[],"categories_segments":[],"categories_sizes":[],"default_left":[0,0,0,0,0,0,0,0,0,0,0,0,0],"id":12,"left_children":[1,3,5,7,-1,9,11,-1,-1,-1,-1,-1,-1],"loss_changes":[8.366749E0,9.118153E0,6.551094E0,4.187583E0,0E0,8.020063E0,4.2903457E0,0E0,0E0,0E0,0E0,0E0,0E0],"parents":[2147483647,0,0,1,1,2,2,3,3,5,5,6,6],"right_children":[2,4,6,8,-1,10,12,-1,-1,-1,-1,-1,-1],"split_conditions":[-6.3957334E-1,2.9915038E-1,1.567857E0,1.8464949E0,8.287875E-3,-7.400582E-1,3.381883E-1,-1.9203292E-2,-0E0,-8.130366E-3,4.372632E-3,3.301288E-3,-1.7861044E-2],"split_indices":[31,37,0,39,0,40,50,0,0,0,0,0,0],"split_type":[0,0,0,0,0,0,0,0,0,0,0,0,0],"sum_hessian":[2.5512619E2,3.2121136E1,2.2300505E2,2.3898544E1,8.222592E0,2.0898584E2,1.4019202E1,1.7850933E1,6.0476108E0,2.1485416E1,1.8750043E2,5.077234E0,8.941969E0],"tree_param":{"num_deleted":"0","num_feature":"60","num_nodes":"13","size_leaf_vector":"1"}},{"base_weights":[-3.9825995E-2,1.5768703E-2,-7.7409394E-2,5.5246705E-1,-1.320335E-1,-0E0,2.0385487E-2,1.0539729E-2,-3.6000845E-3],"categories":[],"categories_nodes":[],"categories_segments":[],"categories_sizes":[],"default_left":[0,0,0,0,0,0,0,0,0],"id":13,"left_children":[1,-1,3,5,7,-1,-1,-1,-1],"loss_changes":[8.030021E0,0E0,8.605524E0,5.2027426E0,7.372278E0,0E0,0E0,0E0,0E0],"parents":[2147483647,0,0,2,2,3,3,4,4],"right_children":[2,-1,4,6,8,-1,-1,-1,-1],"split_conditions":[-9.205582E-1,1.5768703E-2,-1.5990568E0,-2.819825E-2,-1.4335895E0,-0E0,2.0385487E-2,1.0539729E-2,-3.6000845E-3],"split_indices":[23,0,49,43,17,0,0,0,0],"split_type":[0,0,0,0,0,0,0,0,0],"sum_hessian":[2.569458E2,9.679127E0,2.4726666E2,1.8422125E1,2.2884454E2,9.061455E0,9.360669E0,1.4299077E1,2.1454547E2],"tree_param":{"num_deleted":"0","num_feature":"60","num_nodes":"9","size_leaf_vector":"1"}},{"base_weights":[6.546306E-2,-2.7887875E-1,1.6374704E-1,8.424223E-3,-7.18507E-1,5.8998126E-1,3.4423478E-2,-7.4996147E-3,5.3710467E-3,-2.5837135E-2,-6.3438253E-3,1.6307805E-2,-4.8285292E-4,1.7220104E-3,-1.20693315E-2],"categories":[],"categories_nodes":[],"categories_segments":[],"categories_sizes":[],"default_left":[0,0,0,0,0,0,0,0,0,0,0,0,0,0,0],"id":14,"left_children":[1,3,5,7,9,11,13,-1,-1,-1,-1,-1,-1,-1,-1],"loss_changes":[8.624657E0,7.247708E0,1.080993E1,3.6682613E0,4.33053E0,6.489888E0,5.07844E0,0E0,0E0,0E0,0E0,0E0,0E0,0E0,0E0],"parents":[2147483647,0,0,1,1,2,2,3,3,4,4,5,5,6,6],"right_children":[2,4,6,8,10,12,14,-1,-1,-1,-1,-1,-1,-1,-1],"split_conditions":[-5.93281E-1,-8.44688E-1,-1.3044722E-1,-1.2616197E0,-7.794352E-1,4.1120106E-1,2.3124535E0,-7.4996147E-3,5.3710467E-3,-2.5837135E-2,-6.3438253E-3,1.6307805E-2,-4.8285292E-4,1.7220104E-3,-1.20693315E-2],"split_indices":[7,55,58,3,54,37,51,0,0,0,0,0,0,0,0],"split_type":[0,0,0,0,0,0,0,0,0,0,0,0,0,0,0],"sum_hessian":[2.5182726E2,5.4966736E1,1.9686052E2,3.392582E1,2.1040918E1,4.4311718E1,1.5254881E2,1.3212654E1,2.0713165E1,7.1391053E0,1.39018135E1,3.2233383E1,1.2078334E1,1.4253442E2,1.001438E1],"tree_param":{"num_deleted":"0","num_feature":"60","num_nodes":"15","size_leaf_vector":"1"}},{"base_weights":[4.437447E-2,1.0066979E-1,-5.456903E-1,2.0849377E-2,6.685084E-2,-9.210882E-1,2.701125E-3,1.146623E-2,8.014763E-5,-2.5759548E-2,-6.710041E-3],"categories":[],"categories_nodes":[],"categories_segments":[],"categories_sizes":[],"default_left":[0,0,0,0,0,0,0,0,0,0,0],"id":15,"left_children":[1,3,5,-1,7,9,-1,-1,-1,-1,-1],"loss_changes":[8.558091E0,7.2542458E0,6.028711E0,0E0,7.224962E0,2.281911E0,0E0,0E0,0E0,0E0,0E0],"parents":[2147483647,0,0,1,1,2,2,4,4,5,5],"right_children":[2,4,6,-1,8,10,-1,-1,-1,-1,-1],"split_conditions":[1.2059911E0,-9.62946E-1,9.083633E-1,2.0849377E-2,-1.1820445E0,1.6862497E-1,2.701125E-3,1.146623E-2,8.014763E-5,-2.5759548E-2,-6.710041E-3],"split_indices":[0,23,20,0,17,36,0,0,0,0,0],"split_type":[0,0,0,0,0,0,0,0,0,0,0],"sum_hessian":[2.55664E2,2.3476451E2,2.0899487E1,6.4333706E0,2.2833115E2,1.3271612E1,7.627873E0,2.3596207E1,2.0473494E2,6.895806E0,6.375807E0],"tree_param":{"num_deleted":"0","num_feature":"60","num_nodes":"11","size_leaf_vector":"1"}},{"base_weights":[-1.5889539E-3,2.0103252E-2,-3.3476766E-2,6.92616E-1,-7.737552E-2,-1.7079957E-4,2.2164669E-2,1.4983448E-2,-2.1471132E-3],"categories":[],"categories_nodes":[],"categories_segments":[],"categories_sizes":[],"default_left":[0,0,0,0,0,0,0,0,0],"id":16,"left_children":[1,-1,3,5,7,-1,-1,-1,-1],"loss_changes":[8.06965E0,0E0,7.8968863E0,4.2886114E0,5.8605685E0,0E0,0E0,0E0,0E0],"parents":[2147483647,0,0,2,2,3,3,4,4],"right_children":[2,-1,4,6,8,-1,-1,-1,-1],"split_conditions":[-9.62946E-1,2.0103252E-2,-1.4335895E0,-2.9177237E-1,-1.1197952E0,-1.7079957E-4,2.2164669E-2,1.4983448E-2,-2.1471132E-3],"split_indices":[23,0,17,29,37,0,0,0,0],"split_type":[0,0,0,0,0,0,0,0,0],"sum_hessian":[2.528345E2,6.212384E0,2.4662212E2,1.2601863E1,2.3402026E2,5.1023517E0,7.4995112E0,6.756547E0,2.2726372E2],"tree_param":{"num_deleted":"0","num_feature":"60","num_nodes":"9","size_leaf_vector":"1"}},{"base_weights":[-1.7791729E-4,-4.6176102E-2,7.145193E-1,7.8097642E-3,-5.395599E-1,2.687581E-2,3.3875427E-3,-3.548791E-3,2.675077E-3,2.1912036E-3,-1.5024657E-2],"categories":[],"categories_nodes":[],"categories_segments":[],"categories_sizes":[],"default_left":[0,0,0,0,0,0,0,0,0,0,0],"id":17,"left_children":[1,3,5,7,9,-1,-1,-1,-1,-1,-1],"loss_changes":[8.317115E0,6.4987054E0,4.675155E0,5.120166E0,3.5228772E0,0E0,0E0,0E0,0E0,0E0,0E0],"parents":[2147483647,0,0,1,1,2,2,3,3,4,4],"right_children":[2,4,6,8,10,-1,-1,-1,-1,-1,-1],"split_conditions":[7.1688485E-1,1.9538162E0,-1.0385043E-1,-3.2760274E-1,5.695627E-1,2.687581E-2,3.3875427E-3,-3.548791E-3,2.675077E-3,2.1912036E-3,-1.5024657E-2],"split_indices":[22,48,48,56,26,0,0,0,0,0,0],"split_type":[0,0,0,0,0,0,0,0,0,0,0],"sum_hessian":[2.5303784E2,2.3925243E2,1.3785412E1,2.1671211E2,2.2540323E1,5.2511644E0,8.534248E0,8.697602E1,1.2973608E2,5.546451E0,1.6993872E1],"tree_param":{"num_deleted":"0","num_feature":"60","num_nodes":"11","size_leaf_vector":"1"}},{"base_weights":[6.150088E-4,-1.6158527E-1,1.7724419E-1,-2.85384E-1,3.670696E-1,9.061232E-1,5.0948657E-2,7.94912E-3,-7.4171494E-3,4.088465E-5,1.8075364E-2,1.8201598E-3,2.474217E-2,2.8960656E-3,-1.5655888E-2],"categories":[],"categories_nodes":[],"categories_segments":[],"categories_sizes":[],"default_left":[0,0,0,0,0,0,0,0,0,0,0,0,0,0,0],"id":18,"left_children":[1,3,5,7,9,11,13,-1,-1,-1,-1,-1,-1,-1,-1],"loss_changes":[7.5095215E0,9.055989E0,1.1374903E1,6.718751E0,5.0061693E0,4.575979E0,8.60785E0,0E0,0E0,0E0,0E0,0E0,0E0,0E0,0E0],"parents":[2147483647,0,0,1,1,2,2,3,3,4,4,5,5,6,6],"right_children":[2,4,6,8,10,12,14,-1,-1,-1,-1,-1,-1,-1,-1],"split_conditions":[2.8026767E-2,5.3329504E-1,-8.446019E-1,-9.1869503E-1,-2.1811265E-1,-6.746563E-1,9.7087485E-1,7.94912E-3,-7.4171494E-3,4.088465E-5,1.8075364E-2,1.8201598E-3,2.474217E-2,2.8960656E-3,-1.5655888E-2],"split_indices":[37,47,35,17,38,29,4,0,0,0,0,0,0,0,0],"split_type":[0,0,0,0,0,0,0,0,0,0,0,0,0,0,0],"sum_hessian":[2.5903732E2,1.3465807E2,1.2437928E2,1.09896774E2,2.4761284E1,1.6825577E1,1.075537E2,1.1421493E1,9.847528E1,1.5800247E1,8.961038E0,5.542278E0,1.12832985E1,9.794717E1,9.606537E0],"tree_param":{"num_deleted":"0","num_feature":"60","num_nodes":"15","size_leaf_vector":"1"}},{"base_weights":[2.9910961E-2,7.1716595E-1,-1.3085816E-2,2.696686E-3,2.1891484E-2,2.0732557E-2,-4.4520747E-2,1.5567559E-3,-5.874234E-3],"categories":[],"categories_nodes":[],"categories_segments":[],"categories_sizes":[],"default_left":[0,0,0,0,0,0,0,0,0],"id":19,"left_children":[1,3,5,-1,-1,-1,7,-1,-1],"loss_changes":[7.7420454E0,2.9832168E0,7.972826E0,0E0,0E0,0E0,7.3390408E0,0E0,0E0],"parents":[2147483647,0,0,1,1,2,2,6,6],"right_children":[2,4,6,-1,-1,-1,8,-1,-1],"split_conditions":[-1.4335895E0,-4.6483088E-1,-9.62946E-1,2.696686E-3,2.1891484E-2,2.0732557E-2,2.1982013E-1,1.5567559E-3,-5.874234E-3],"split_indices":[17,36,23,0,0,0,59,0,0],"split_type":[0,0,0,0,0,0,0,0,0],"sum_hessian":[2.5644998E2,1.3920224E1,2.4252974E2,6.4308796E0,7.489345E0,5.518313E0,2.3701143E2,1.5924698E2,7.776445E1],"tree_param":{"num_deleted":"0","num_feature":"60","num_nodes":"9","size_leaf_vector":"1"}},{"base_weights":[-1.8259967E-2,2.4438975E-2,-8.194842E-1,4.5221853E-1,-8.2235076E-2,-2.3046076E-2,-3.6799985E-3,1.9519577E-2,3.7695044E-3,-8.126946E-3,3.0799987E-4],"categories":[],"categories_nodes":[],"categories_segments":[],"categories_sizes":[],"default_left":[0,0,0,0,0,0,0,0,0,0,0],"id":20,"left_children":[1,3,5,7,9,-1,-1,-1,-1,-1,-1],"loss_changes":[9.306622E0,1.1766148E1,2.392644E0,6.6619883E0,6.568351E0,0E0,0E0,0E0,0E0,0E0,0E0],"parents":[2147483647,0,0,1,1,2,2,3,3,4,4],"right_children":[2,4,6,8,10,-1,-1,-1,-1,-1,-1],"split_conditions":[6.008352E-1,-4.5488906E-1,-7.281551E-1,-1.6602798E-1,-3.978292E-1,-2.3046076E-2,-3.6799985E-3,1.9519577E-2,3.7695044E-3,-8.126946E-3,3.0799987E-4],"split_indices":[36,49,54,28,54,0,0,0,0,0,0],"split_type":[0,0,0,0,0,0,0,0,0,0,0],"sum_hessian":[2.6616858E2,2.539045E2,1.2264077E1,4.998882E1,2.0391568E2,7.0932264E0,5.1708503E0,1.5194677E1,3.479414E1,4.646444E1,1.5745125E2],"tree_param":{"num_deleted":"0","num_feature":"60","num_nodes":"11","size_leaf_vector":"1"}},{"base_weights":[-3.979728E-3,-4.8382435E-2,9.187775E-1,-9.895153E-4,-2.0319369E-2,2.3609664E-2,8.230997E-3,-2.336337E-3,6.493531E-3],"categories":[],"categories_nodes":[],"categories_segments":[],"categories_sizes":[],"default_left":[0,0,0,0,0,0,0,0,0],"id":21,"left_children":[1,3,5,7,-1,-1,-1,-1,-1],"loss_changes":[1.0525379E1,1.1225756E1,5.968828E-1,9.011687E0,0E0,0E0,0E0,0E0,0E0],"parents":[2147483647,0,0,1,1,2,2,3,3],"right_children":[2,4,6,8,-1,-1,-1,-1,-1],"split_conditions":[7.695569E-1,1.567857E0,8.841156E-1,4.681708E-1,-2.0319369E-2,2.3609664E-2,8.230997E-3,-2.336337E-3,6.493531E-3],"split_indices":[22,0,22,31,0,0,0,0,0],"split_type":[0,0,0,0,0,0,0,0,0],"sum_hessian":[2.5694534E2,2.4666006E2,1.02852745E1,2.3672185E2,9.938213E0,5.2762604E0,5.009014E0,1.7566638E2,6.105547E1],"tree_param":{"num_deleted":"0","num_feature":"60","num_nodes":"9","size_leaf_vector":"1"}},{"base_weights":[-3.989127E-2,8.942426E-3,-8.582778E-1,4.3689627E-2,-1.7558698E-2,-2.5005242E-2,-5.9943763E-3,-3.184677E-3,4.224033E-3],"categories":[],"categories_nodes":[],"categories_segments":[],"categories_sizes":[],"default_left":[0,0,0,0,0,0,0,0,0],"id":22,"left_children":[1,3,5,7,-1,-1,-1,-1,-1],"loss_changes":[1.0284368E1,7.355357E0,2.376502E0,7.991533E0,0E0,0E0,0E0,0E0,0E0],"parents":[2147483647,0,0,1,1,2,2,3,3],"right_children":[2,4,6,8,-1,-1,-1,-1,-1],"split_conditions":[1.567857E0,2.3124535E0,-3.3647326E-1,-9.469105E-2,-1.7558698E-2,-2.5005242E-2,-5.9943763E-3,-3.184677E-3,4.224033E-3],"split_indices":[0,51,45,37,0,0,0,0,0],"split_type":[0,0,0,0,0,0,0,0,0],"sum_hessian":[2.523595E2,2.3937608E2,1.2983416E1,2.318862E2,7.489891E0,6.379981E0,6.603435E0,1.0448821E2,1.2739798E2],"tree_param":{"num_deleted":"0","num_feature":"60","num_nodes":"9","size_leaf_vector":"1"}},{"base_weights":[-7.168379E-3,6.723702E-1,-6.6108644E-2,9.875554E-1,-3.2999213E-3,1.5855795E-2,-1.0113921E-1,4.3218336E-3,2.8365051E-2,-1.4011753E-3,-1.9043935E-2],"categories":[],"categories_nodes":[],"categories_segments":[],"categories_sizes":[],"default_left":[0,0,0,0,0,0,0,0,0,0,0],"id":23,"left_children":[1,3,5,7,-1,-1,9,-1,-1,-1,-1],"loss_changes":[1.0541096E1,5.9062834E0,7.367094E0,4.475585E0,0E0,0E0,5.995157E0,0E0,0E0,0E0,0E0],"parents":[2147483647,0,0,1,1,2,2,3,3,6,6],"right_children":[2,4,6,8,-1,-1,10,-1,-1,-1,-1],"split_conditions":[-7.153478E-1,3.7088376E-1,-1.2641996E0,-3.4501687E-1,-3.2999213E-3,1.5855795E-2,2.0440476E0,4.3218336E-3,2.8365051E-2,-1.4011753E-3,-1.9043935E-2],"split_indices":[33,48,16,48,0,0,0,0,0,0,0],"split_type":[0,0,0,0,0,0,0,0,0,0,0],"sum_hessian":[2.6228986E2,1.9485039E1,2.4280481E2,1.4091198E1,5.393841E0,8.075529E0,2.3472928E2,5.9802504E0,8.110948E0,2.2819537E2,6.533917E0],"tree_param":{"num_deleted":"0","num_feature":"60","num_nodes":"11","size_leaf_vector":"1"}},{"base_weights":[-4.3309103E-3,8.252751E-1,-5.378332E-2,6.6947173E-3,2.403542E-2,-2.0174716E-2,-1.699826E-2,-4.778937E-3,2.3881951E-3],"categories":[],"categories_nodes":[],"categories_segments":[],"categories_sizes":[],"default_left":[0,0,0,0,0,0,0,0,0],"id":24,"left_children":[1,3,5,-1,-1,7,-1,-1,-1],"loss_changes":[1.0531754E1,1.8311262E0,6.398569E0,0E0,0E0,7.291066E0,0E0,0E0,0E0],"parents":[2147483647,0,0,1,1,2,2,5,5],"right_children":[2,4,6,-1,-1,8,-1,-1,-1],"split_conditions":[-1.538519E0,-1.023877E0,2.3124535E0,6.6947173E-3,2.403542E-2,-1.5217069E-1,-1.699826E-2,-4.778937E-3,2.3881951E-3],"split_indices":[20,41,51,0,0,47,0,0,0],"split_type":[0,0,0,0,0,0,0,0,0],"sum_hessian":[2.56407E2,1.2929982E1,2.4347702E2,7.018093E0,5.9118896E0,2.3527147E2,8.20556E0,9.1643906E1,1.4362756E2],"tree_param":{"num_deleted":"0","num_feature":"60","num_nodes":"9","size_leaf_vector":"1"}},{"base_weights":[4.0441364E-2,2.1630354E-2,8.579683E-3,-2.6483002E-1,1.0462086E-1,2.3786477E-3,-1.1423303E-2,3.1600157E-3,-1.0764957E-2],"categories":[],"categories_nodes":[],"categories_segments":[],"categories_sizes":[],"default_left":[0,0,0,0,0,0,0,0,0],"id":25,"left_children":[1,-1,3,5,7,-1,-1,-1,-1],"loss_changes":[8.54088E0,0E0,6.7575984E0,8.016213E0,6.639901E0,0E0,0E0,0E0,0E0],"parents":[2147483647,0,0,2,2,3,3,4,4],"right_children":[2,-1,4,6,8,-1,-1,-1,-1],"split_conditions":[-9.62946E-1,2.1630354E-2,-4.2025772E-1,-2.8698108E-1,6.008352E-1,2.3786477E-3,-1.1423303E-2,3.1600157E-3,-1.0764957E-2],"split_indices":[23,0,40,36,36,0,0,0,0],"split_type":[0,0,0,0,0,0,0,0,0],"sum_hessian":[2.613338E2,6.153245E0,2.5518056E2,6.524455E1,1.89936E2,2.9152111E1,3.6092438E1,1.7663405E2,1.3301955E1],"tree_param":{"num_deleted":"0","num_feature":"60","num_nodes":"9","size_leaf_vector":"1"}},{"base_weights":[-3.927731E-2,-5.8434486E-1,2.6283884E-2,-1.0053092E0,-6.3009195E-2,5.731951E-1,-7.50089E-2,-2.4052763E-2,-9.778443E-3,7.1555986E-3,-1.2675406E-2,1.622783E-2,-4.4836523E-3,-2.91165E-3,6.0574934E-3],"categories":[],"categories_nodes":[],"categories_segments":[],"categories_sizes":[],"default_left":[0,0,0,0,0,0,0,0,0,0,0,0,0,0,0],"id":26,"left_children":[1,3,5,7,9,11,13,-1,-1,-1,-1,-1,-1,-1,-1],"loss_changes":[9.349731E0,5.907447E0,1.2995511E1,4.209118E-1,3.8169954E0,7.3257437E0,5.293616E0,0E0,0E0,0E0,0E0,0E0,0E0,0E0,0E0],"parents":[2147483647,0,0,1,1,2,2,3,3,4,4,5,5,6,6],"right_children":[2,4,6,8,10,12,14,-1,-1,-1,-1,-1,-1,-1,-1],"split_conditions":[-1.1158944E0,2.3428777E-1,-4.5488906E-1,1.4276856E0,-1.2967851E0,7.7418447E-1,7.62124E-1,-2.4052763E-2,-9.778443E-3,7.1555986E-3,-1.2675406E-2,1.622783E-2,-4.4836523E-3,-2.91165E-3,6.0574934E-3],"split_indices":[7,38,49,29,7,26,40,0,0,0,0,0,0,0,0],"split_type":[0,0,0,0,0,0,0,0,0,0,0,0,0,0,0],"sum_hessian":[2.571515E2,2.6580772E1,2.3057072E2,1.3776445E1,1.2804326E1,3.516994E1,1.9540079E2,8.315073E0,5.461373E0,7.5414066E0,5.26292E0,2.7204916E1,7.9650245E0,1.6576208E2,2.9638697E1],"tree_param":{"num_deleted":"0","num_feature":"60","num_nodes":"15","size_leaf_vector":"1"}},{"base_weights":[-5.21087E-4,-1.1582424E-1,2.336476E-1,2.908445E-3,-5.8350307E-1,9.438578E-1,1.1519315E-1,6.8919105E-3,-3.2790867E-3,-1.55025385E-2,6.3133705E-4,8.16861E-3,2.4370985E-2,7.3543754E-3,-5.4918705E-3],"categories":[],"categories_nodes":[],"categories_segments":[],"categories_sizes":[],"default_left":[0,0,0,0,0,0,0,0,0,0,0,0,0,0,0],"id":27,"left_children":[1,3,5,7,9,11,13,-1,-1,-1,-1,-1,-1,-1,-1],"loss_changes":[7.11025E0,9.9358425E0,6.969612E0,8.245129E0,4.4107494E0,7.743416E-1,7.66319E0,0E0,0E0,0E0,0E0,0E0,0E0,0E0,0E0],"parents":[2147483647,0,0,1,1,2,2,3,3,4,4,5,5,6,6],"right_children":[2,4,6,8,10,12,14,-1,-1,-1,-1,-1,-1,-1,-1],"split_conditions":[3.210861E-1,8.041172E-2,-2.7246535E-1,-2.4374698E-1,3.5890836E-1,-3.531378E-1,1.1637616E-1,6.8919105E-3,-3.2790867E-3,-1.55025385E-2,6.3133705E-4,8.16861E-3,2.4370985E-2,7.3543754E-3,-5.4918705E-3],"split_indices":[9,9,39,17,7,21,59,0,0,0,0,0,0,0,0],"split_type":[0,0,0,0,0,0,0,0,0,0,0,0,0,0,0],"sum_hessian":[2.6098993E2,1.7581728E2,8.517265E1,1.4115202E2,3.466525E1,1.0499996E1,7.467266E1,4.6084805E1,9.506722E1,2.6319115E1,8.346134E0,5.010305E0,5.489691E0,4.5600105E1,2.9072554E1],"tree_param":{"num_deleted":"0","num_feature":"60","num_nodes":"15","size_leaf_vector":"1"}},{"base_weights":[-2.6925443E-2,1.3945044E-2,-7.8972554E-1,-1.1213783E-1,2.1731852E-1,-2.4585988E-2,-5.2878116E-3,5.2528974E-4,-8.968018E-3,6.802101E-3,-6.1780014E-3],"categories":[],"categories_nodes":[],"categories_segments":[],"categories_sizes":[],"default_left":[0,0,0,0,0,0,0,0,0,0,0],"id":28,"left_children":[1,3,5,7,9,-1,-1,-1,-1,-1,-1],"loss_changes":[8.111779E0,6.3141522E0,2.34307E0,7.1215158E0,6.263123E0,0E0,0E0,0E0,0E0,0E0,0E0],"parents":[2147483647,0,0,1,1,2,2,3,3,4,4],"right_children":[2,4,6,8,10,-1,-1,-1,-1,-1,-1],"split_conditions":[1.567857E0,1.7913301E-1,-3.8610157E-1,1.109325E-1,3.735312E-1,-2.4585988E-2,-5.2878116E-3,5.2528974E-4,-8.968018E-3,6.802101E-3,-6.1780014E-3],"split_indices":[0,38,18,59,53,0,0,0,0,0,0],"split_type":[0,0,0,0,0,0,0,0,0,0,0],"sum_hessian":[2.5443051E2,2.4270255E2,1.172796E1,1.4978043E2,9.292212E1,5.1353664E0,6.592593E0,1.0677127E2,4.3009163E1,7.600328E1,1.691884E1],"tree_param":{"num_deleted":"0","num_feature":"60","num_nodes":"11","size_leaf_vector":"1"}},{"base_weights":[1.7250992E-2,4.9353845E-2,-1.7957456E-2,9.192722E-2,-6.9165134E-1,-2.6684543E-3,5.052443E-3,-2.4396805E-2,2.7194428E-3],"categories":[],"categories_nodes":[],"categories_segments":[],"categories_sizes":[],"default_left":[0,0,0,0,0,0,0,0,0],"id":29,"left_children":[1,3,-1,5,7,-1,-1,-1,-1],"loss_changes":[7.5620823E0,7.9635334E0,0E0,8.762037E0,6.3960276E0,0E0,0E0,0E0,0E0],"parents":[2147483647,0,0,1,1,3,3,4,4],"right_children":[2,4,-1,6,8,-1,-1,-1,-1],"split_conditions":[2.0440476E0,9.67597E-1,-1.7957456E-2,-1.4723659E-1,2.923709E-1,-2.6684543E-3,5.052443E-3,-2.4396805E-2,2.7194428E-3],"split_indices":[0,42,0,37,34,0,0,0,0],"split_type":[0,0,0,0,0,0,0,0,0],"sum_hessian":[2.5797534E2,2.5076157E2,7.213785E0,2.3857115E2,1.2190418E1,9.902496E1,1.3954619E2,7.1180577E0,5.0723605E0],"tree_param":{"num_deleted":"0","num_feature":"60","num_nodes":"9","size_leaf_vector":"1"}},{"base_weights":[4.1685957E-2,1.1477065E-1,-2.2727145E-1,4.3129885E-1,-5.2654482E-3,5.387008E-1,-4.5579368E-1,-8.2216645E-3,1.1979348E-2,-2.05835E-3,7.003146E-3,2.1263126E-3,1.8050985E-2,-1.5906403E-2,-3.900706E-3],"categories":[],"categories_nodes":[],"categories_segments":[],"categories_sizes":[],"default_left":[0,0,0,0,0,0,0,0,0,0,0,0,0,0,0],"id":30,"left_children":[1,3,5,7,9,11,13,-1,-1,-1,-1,-1,-1,-1,-1],"loss_changes":[5.13123E0,7.887038E0,1.00882435E1,8.441277E0,5.2356243E0,1.7991581E0,3.4954662E0,0E0,0E0,0E0,0E0,0E0,0E0,0E0,0E0],"parents":[2147483647,0,0,1,1,2,2,3,3,4,4,5,5,6,6],"right_children":[2,4,6,8,10,12,14,-1,-1,-1,-1,-1,-1,-1,-1],"split_conditions":[6.2231725E-1,-2.9663852E-1,-1.4088687E0,-1.1421735E0,5.5519074E-1,2.8174484E-1,4.1514855E-2,-8.2216645E-3,1.1979348E-2,-2.05835E-3,7.003146E-3,2.1263126E-3,1.8050985E-2,-1.5906403E-2,-3.900706E-3],"split_indices":[26,0,51,22,22,38,36,0,0,0,0,0,0,0,0],"split_type":[0,0,0,0,0,0,0,0,0,0,0,0,0,0,0],"sum_hessian":[2.584107E2,2.043104E2,5.4100323E1,5.5450546E1,1.4885985E2,1.1812895E1,4.228743E1,8.694804E0,4.675574E1,1.17942856E2,3.0916996E1,6.4721584E0,5.340737E0,1.6783628E1,2.55038E1],"tree_param":{"num_deleted":"0","num_feature":"60","num_nodes":"15","size_leaf_vector":"1"}},{"base_weights":[-2.4392568E-2,2.171075E-2,-5.9344105E-2,-9.182054E-2,1.7637217E-2,-1.0526638E-3,-2.1945206E-2],"categories":[],"categories_nodes":[],"categories_segments":[],"categories_sizes":[],"default_left":[0,0,0,0,0,0,0],"id":31,"left_children":[1,-1,3,5,-1,-1,-1],"loss_changes":[9.992936E0,0E0,7.727615E0,9.4253845E0,0E0,0E0,0E0],"parents":[2147483647,0,0,2,2,3,3],"right_children":[2,-1,4,6,-1,-1,-1],"split_conditions":[-9.62946E-1,2.171075E-2,1.4586701E0,1.8383601E0,1.7637217E-2,-1.0526638E-3,-2.1945206E-2],"split_indices":[23,0,17,0,0,0,0],"split_type":[0,0,0,0,0,0,0],"sum_hessian":[2.5756833E2,6.3557053E0,2.5121262E2,2.4429617E2,6.916445E0,2.3679472E2,7.501442E0],"tree_param":{"num_deleted":"0","num_feature":"60","num_nodes":"7","size_leaf_vector":"1"}},{"base_weights":[1.5999757E-2,7.504682E-2,-5.7942516E-1,2.6114398E-1,-8.3919056E-2,-8.1929535E-1,3.6388396E-3,-0E0,1.1296572E-2,-7.3024E-3,1.6540632E-3,-2.1287097E-2,-4.1446127E-3],"categories":[],"categories_nodes":[],"categories_segments":[],"categories_sizes":[],"default_left":[0,0,0,0,0,0,0,0,0,0,0,0,0],"id":32,"left_children":[1,3,5,7,9,11,-1,-1,-1,-1,-1,-1,-1],"loss_changes":[8.929456E0,6.949148E0,4.4984684E0,8.542152E0,6.005489E0,2.1518593E0,0E0,0E0,0E0,0E0,0E0,0E0,0E0],"parents":[2147483647,0,0,1,1,2,2,3,3,4,4,5,5],"right_children":[2,4,6,8,10,12,-1,-1,-1,-1,-1,-1,-1],"split_conditions":[1.9538162E0,-1.1645626E-2,7.7937305E-1,-3.5597897E-1,-2.8013626E-1,1.7311646E-1,3.6388396E-3,-0E0,1.1296572E-2,-7.3024E-3,1.6540632E-3,-2.1287097E-2,-4.1446127E-3],"split_indices":[48,6,23,41,25,38,0,0,0,0,0,0,0],"split_type":[0,0,0,0,0,0,0,0,0,0,0,0,0],"sum_hessian":[2.5277678E2,2.3139288E2,2.1383894E1,1.0659011E2,1.2480278E2,1.6323904E1,5.059991E0,5.8209488E1,4.838062E1,4.610563E1,7.869715E1,1.0690225E1,5.63368E0],"tree_param":{"num_deleted":"0","num_feature":"60","num_nodes":"13","size_leaf_vector":"1"}},{"base_weights":[-1.6424932E-2,2.3367524E-2,-7.656906E-1,5.973904E-2,-1.6984385E-2,-1.9409906E-2,-6.3834777E-3,-9.7327615E-4,6.756675E-3],"categories":[],"categories_nodes":[],"categories_segments":[],"categories_sizes":[],"default_left":[0,0,0,0,0,0,0,0,0],"id":33,"left_children":[1,3,5,7,-1,-1,-1,-1,-1],"loss_changes":[7.9557076E0,7.8996987E0,5.7257175E-1,7.3572707E0,0E0,0E0,0E0,0E0,0E0],"parents":[2147483647,0,0,1,1,2,2,3,3],"right_children":[2,4,6,8,-1,-1,-1,-1,-1],"split_conditions":[6.008352E-1,2.3124535E0,4.13214E-2,3.1108385E-1,-1.6984385E-2,-1.9409906E-2,-6.3834777E-3,-9.7327615E-4,6.756675E-3],"split_indices":[36,51,43,14,0,0,0,0,0],"split_type":[0,0,0,0,0,0,0,0,0],"sum_hessian":[2.606999E2,2.4874254E2,1.1957346E1,2.4029564E2,8.446891E0,6.7603893E0,5.1969566E0,1.7340108E2,6.689456E1],"tree_param":{"num_deleted":"0","num_feature":"60","num_nodes":"9","size_leaf_vector":"1"}},{"base_weights":[-2.5396096E-2,1.1239748E-2,-7.00542E-1,2.2547022E-1,-1.1700622E-1,-1.8226719E-2,-5.16259E-3,-1.4231105E-3,1.2370587E-2,-5.9215254E-3,4.4252123E-3],"categories":[],"categories_nodes":[],"categories_segments":[],"categories_sizes":[],"default_left":[0,0,0,0,0,0,0,0,0,0,0],"id":34,"left_children":[1,3,5,7,9,-1,-1,-1,-1,-1,-1],"loss_changes":[6.4597845E0,6.775201E0,7.2482157E-1,1.0936762E1,9.409703E0,0E0,0E0,0E0,0E0,0E0,0E0],"parents":[2147483647,0,0,1,1,2,2,3,3,4,4],"right_children":[2,4,6,8,10,-1,-1,-1,-1,-1,-1],"split_conditions":[6.008352E-1,-8.018341E-2,1.5149055E0,-4.105969E-1,5.708623E-1,-1.8226719E-2,-5.16259E-3,-1.4231105E-3,1.2370587E-2,-5.9215254E-3,4.4252123E-3],"split_indices":[36,58,33,42,19,0,0,0,0,0,0],"split_type":[0,0,0,0,0,0,0,0,0,0,0],"sum_hessian":[2.5500685E2,2.4306985E2,1.1936991E1,9.103368E1,1.5203618E2,6.778391E0,5.1586E0,5.2363735E1,3.866995E1,9.982293E1,5.2213245E1],"tree_param":{"num_deleted":"0","num_feature":"60","num_nodes":"11","size_leaf_vector":"1"}},{"base_weights":[4.237628E-2,8.072229E-2,-6.059301E-1,3.250614E-1,-5.5031944E-2,-2.0310214E-2,2.0159807E-3,2.2167617E-3,1.3461929E-2,-3.8217525E-3,4.3671518E-3],"categories":[],"categories_nodes":[],"categories_segments":[],"categories_sizes":[],"default_left":[0,0,0,0,0,0,0,0,0,0,0],"id":35,"left_children":[1,3,5,7,9,-1,-1,-1,-1,-1,-1],"loss_changes":[6.4979196E0,8.311156E0,4.5073028E0,6.4342422E0,6.0342293E0,0E0,0E0,0E0,0E0,0E0,0E0],"parents":[2147483647,0,0,1,1,2,2,3,3,4,4],"right_children":[2,4,6,8,10,-1,-1,-1,-1,-1,-1],"split_conditions":[6.008352E-1,-1.4289764E-1,1.6865065E0,-2.1527188E-1,5.708623E-1,-2.0310214E-2,2.0159807E-3,2.2167617E-3,1.3461929E-2,-3.8217525E-3,4.3671518E-3],"split_indices":[36,58,34,11,19,0,0,0,0,0,0],"split_type":[0,0,0,0,0,0,0,0,0,0,0],"sum_hessian":[2.600987E2,2.4703186E2,1.3066831E1,8.787751E1,1.5915436E2,7.9919906E0,5.07484E0,5.5886696E1,3.1990814E1,1.0693637E2,5.221798E1],"tree_param":{"num_deleted":"0","num_feature":"60","num_nodes":"11","size_leaf_vector":"1"}},{"base_weights":[4.177486E-2,6.992168E-2,-1.9512367E-2,-6.0137186E-2,2.8690022E-1,-3.4425624E-3,7.909559E-3,1.1658837E-2,8.226752E-4],"categories":[],"categories_nodes":[],"categories_segments":[],"categories_sizes":[],"default_left":[0,0,0,0,0,0,0,0,0],"id":36,"left_children":[1,3,-1,5,7,-1,-1,-1,-1],"loss_changes":[7.231081E0,7.0696926E0,0E0,8.034298E0,6.693887E0,0E0,0E0,0E0,0E0],"parents":[2147483647,0,0,1,1,3,3,4,4],"right_children":[2,4,-1,6,8,-1,-1,-1,-1],"split_conditions":[2.085946E0,1.5310614E-1,-1.9512367E-2,7.0696145E-1,4.9149248E-1,-3.4425624E-3,7.909559E-3,1.1658837E-2,8.226752E-4],"split_indices":[1,33,0,15,34,0,0,0,0],"split_type":[0,0,0,0,0,0,0,0,0],"sum_hessian":[2.5218463E2,2.4689838E2,5.286251E0,1.546142E2,9.228417E1,1.25121635E2,2.9492563E1,4.0650166E1,5.1634007E1],"tree_param":{"num_deleted":"0","num_feature":"60","num_nodes":"9","size_leaf_vector":"1"}},{"base_weights":[-3.4509666E-2,4.2599246E-1,-8.193007E-2,-3.7151005E-4,6.4267933E-1,-3.0343762E-1,5.586163E-2,1.8031575E-2,3.5621194E-4,8.4979855E-4,-1.1659873E-2,1.1943092E-2,-9.545608E-4],"categories":[],"categories_nodes":[],"categories_segments":[],"categories_sizes":[],"default_left":[0,0,0,0,0,0,0,0,0,0,0,0,0],"id":37,"left_children":[1,3,5,-1,7,9,11,-1,-1,-1,-1,-1,-1],"loss_changes":[5.661353E0,2.4377184E0,7.28316E0,0E0,2.5079427E0,8.954848E0,8.350705E0,0E0,0E0,0E0,0E0,0E0,0E0],"parents":[2147483647,0,0,1,1,2,2,4,4,5,5,6,6],"right_children":[2,4,6,-1,8,10,12,-1,-1,-1,-1,-1,-1],"split_conditions":[-1.2534738E0,-4.7571492E-1,-1.3488583E-1,-3.7151005E-4,5.7440764E-1,-3.496271E-1,-2.8556162E-1,1.8031575E-2,3.5621194E-4,8.4979855E-4,-1.1659873E-2,1.1943092E-2,-9.545608E-4],"split_indices":[17,23,47,0,14,49,19,0,0,0,0,0,0],"split_type":[0,0,0,0,0,0,0,0,0,0,0,0,0],"sum_hessian":[2.5771872E2,2.2647682E1,2.3507104E2,7.643986E0,1.50036955E1,8.987597E1,1.4519507E2,9.96899E0,5.0347056E0,4.0498215E1,4.9377758E1,2.2407738E1,1.2278733E2],"tree_param":{"num_deleted":"0","num_feature":"60","num_nodes":"13","size_leaf_vector":"1"}},{"base_weights":[7.784349E-3,4.9198773E-2,-7.161661E-1,1.1062201E-2,1.6803686E-2,-2.2553386E-2,-0E0,1.31776E-3,-7.046243E-3],"categories":[],"categories_nodes":[],"categories_segments":[],"categories_sizes":[],"default_left":[0,0,0,0,0,0,0,0,0],"id":38,"left_children":[1,3,5,7,-1,-1,-1,-1,-1],"loss_changes":[7.7053175E0,7.284518E0,4.066726E0,4.70463E0,0E0,0E0,0E0,0E0,0E0],"parents":[2147483647,0,0,1,1,2,2,3,3],"right_children":[2,4,6,8,-1,-1,-1,-1,-1],"split_conditions":[6.008352E-1,5.880832E-1,2.065151E0,9.7123516E-1,1.6803686E-2,-2.2553386E-2,-0E0,1.31776E-3,-7.046243E-3],"split_indices":[36,36,29,0,0,0,0,0,0],"split_type":[0,0,0,0,0,0,0,0,0],"sum_hessian":[2.5707227E2,2.446803E2,1.2391961E1,2.3505783E2,9.622461E0,7.30111E0,5.0908513E0,2.056676E2,2.9390242E1],"tree_param":{"num_deleted":"0","num_feature":"60","num_nodes":"9","size_leaf_vector":"1"}},{"base_weights":[-1.9754771E-2,-2.9194084E-1,6.812678E-2,-1.2050776E-1,-7.340283E-1,3.3718166E-1,-5.825608E-2,-5.580741E-3,1.0075937E-2,-1.5152262E-4,-2.0865282E-2,9.733907E-3,-1.8398921E-3,1.0315044E-2,-2.7578617E-3],"categories":[],"categories_nodes":[],"categories_segments":[],"categories_sizes":[],"default_left":[0,0,0,0,0,0,0,0,0,0,0,0,0,0,0],"id":39,"left_children":[1,3,5,7,9,11,13,-1,-1,-1,-1,-1,-1,-1,-1],"loss_changes":[5.977003E0,4.3652554E0,6.453251E0,4.7320704E0,3.5409718E0,4.0139136E0,5.9285355E0,0E0,0E0,0E0,0E0,0E0,0E0,0E0,0E0],"parents":[2147483647,0,0,1,1,2,2,3,3,4,4,5,5,6,6],"right_children":[2,4,6,8,10,12,14,-1,-1,-1,-1,-1,-1,-1,-1],"split_conditions":[-5.198775E-1,-3.9753628E-1,-6.763831E-2,1.0974811E0,-7.733128E-1,6.9799185E-1,-3.333201E-1,-5.580741E-3,1.0075937E-2,-1.5152262E-4,-2.0865282E-2,9.733907E-3,-1.8398921E-3,1.0315044E-2,-2.7578617E-3],"split_indices":[7,10,39,28,45,28,19,0,0,0,0,0,0,0,0],"split_type":[0,0,0,0,0,0,0,0,0,0,0,0,0,0,0],"sum_hessian":[2.4572261E2,5.9539913E1,1.861827E2,4.4522945E1,1.5016969E1,5.9084156E1,1.2709854E2,3.6359924E1,8.163021E0,5.087442E0,9.929526E0,4.392894E1,1.5155216E1,1.4254791E1,1.1284376E2],"tree_param":{"num_deleted":"0","num_feature":"60","num_nodes":"15","size_leaf_vector":"1"}},{"base_weights":[-1.9524613E-2,1.9325554E-2,-6.549303E-1,-9.913732E-2,3.3825597E-1,-2.247026E-2,3.3976166E-3,-4.162815E-3,7.0887976E-3,8.910052E-3,-1.199186E-2],"categories":[],"categories_nodes":[],"categories_segments":[],"categories_sizes":[],"default_left":[0,0,0,0,0,0,0,0,0,0,0],"id":40,"left_children":[1,3,5,7,9,-1,-1,-1,-1,-1,-1],"loss_changes":[6.3649216E0,9.148149E0,6.170733E0,8.776005E0,6.980142E0,0E0,0E0,0E0,0E0,0E0,0E0],"parents":[2147483647,0,0,1,1,2,2,3,3,4,4],"right_children":[2,4,6,8,10,-1,-1,-1,-1,-1,-1],"split_conditions":[9.67597E-1,3.460339E-1,1.380858E0,7.763017E-1,2.0205526E0,-2.247026E-2,3.3976166E-3,-4.162815E-3,7.0887976E-3,8.910052E-3,-1.199186E-2],"split_indices":[42,4,21,38,48,0,0,0,0,0,0],"split_type":[0,0,0,0,0,0,0,0,0,0,0],"sum_hessian":[2.5170798E2,2.3835284E2,1.3355134E1,1.7420857E2,6.414427E1,8.28627E0,5.068864E0,1.4137564E2,3.283294E1,5.8412033E1,5.7322373E0],"tree_param":{"num_deleted":"0","num_feature":"60","num_nodes":"11","size_leaf_vector":"1"}},{"base_weights":[-8.318224E-3,6.5562433E-1,-5.1089577E-2,2.2164952E-2,4.1126665E-3,-2.4759854E-1,8.796716E-2,-1.4999994E-3,-1.2636455E-2,1.3454692E-2,-1.2825283E-3],"categories":[],"categories_nodes":[],"categories_segments":[],"categories_sizes":[],"default_left":[0,0,0,0,0,0,0,0,0,0,0],"id":41,"left_children":[1,3,5,-1,-1,7,9,-1,-1,-1,-1],"loss_changes":[7.1985435E0,2.5822077E0,6.644621E0,0E0,0E0,6.5040765E0,1.2771465E1,0E0,0E0,0E0,0E0],"parents":[2147483647,0,0,1,1,2,2,5,5,6,6],"right_children":[2,4,6,-1,-1,8,10,-1,-1,-1,-1],"split_conditions":[-1.538519E0,-2.3126279E-1,-7.243553E-2,2.2164952E-2,4.1126665E-3,-6.490705E-3,-8.018341E-2,-1.4999994E-3,-1.2636455E-2,1.3454692E-2,-1.2825283E-3],"split_indices":[20,49,47,0,0,6,58,0,0,0,0],"split_type":[0,0,0,0,0,0,0,0,0,0,0],"sum_hessian":[2.5341414E2,1.3823962E1,2.3959018E2,5.631723E0,8.19224E0,9.924678E1,1.403434E2,6.9989685E1,2.9257092E1,2.8111635E1,1.12231766E2],"tree_param":{"num_deleted":"0","num_feature":"60","num_nodes":"11","size_leaf_vector":"1"}},{"base_weights":[-8.480097E-3,-4.9568288E-2,6.403969E-1,1.3018836E-2,-4.7344533E-1,1.9603979E-2,1.2387411E-4,-7.2209826E-3,1.9631155E-3,-1.9469436E-2,3.9818115E-3],"categories":[],"categories_nodes":[],"categories_segments":[],"categories_sizes":[],"default_left":[0,0,0,0,0,0,0,0,0,0,0],"id":42,"left_children":[1,3,5,7,9,-1,-1,-1,-1,-1,-1],"loss_changes":[6.934486E0,6.6486454E0,3.1769924E0,6.9229846E0,1.12393875E1,0E0,0E0,0E0,0E0,0E0,0E0],"parents":[2147483647,0,0,1,1,2,2,3,3,4,4],"right_children":[2,4,6,8,10,-1,-1,-1,-1,-1,-1],"split_conditions":[7.398411E-1,4.2252767E-1,6.307695E-1,-4.649866E-1,5.825957E-1,1.9603979E-2,1.2387411E-4,-7.2209826E-3,1.9631155E-3,-1.9469436E-2,3.9818115E-3],"split_indices":[22,53,47,43,14,0,0,0,0,0,0],"split_type":[0,0,0,0,0,0,0,0,0,0,0],"sum_hessian":[2.601349E2,2.461639E2,1.3971009E1,2.1545166E2,3.0712236E1,8.410082E0,5.5609264E0,3.871698E1,1.7673466E2,1.735829E1,1.3353948E1],"tree_param":{"num_deleted":"0","num_feature":"60","num_nodes":"11","size_leaf_vector":"1"}}]},"name":"gbtree"},"learner_model_param":{"base_score":"[5.0521713E-1]","boost_from_average":"1","num_class":"0","num_feature":"60","num_target":"1"},"objective":{"name":"binary:logistic","reg_loss_param":{"scale_pos_weight":"0.871004581"}}},"version":[3,2,0]}